<?xml version="1.0"?>
<opencv_storage>
<stage6>
  <maxWeakCount>5</maxWeakCount>
  <stageThreshold>-1.1522302627563477e+00</stageThreshold>
  <weakClassifiers>
    <_>
      <internalNodes>
        0 -1 149168 1.4518650248646736e-02</internalNodes>
      <leafValues>
        -7.4074071645736694e-01 7.1428573131561279e-01</leafValues></_>
    <_>
      <internalNodes>
        0 -1 27914 3.4244887530803680e-02</internalNodes>
      <leafValues>
        -6.3170605897903442e-01 8.3327507972717285e-01</leafValues></_>
    <_>
      <internalNodes>
        0 -1 127608 -6.9159825216047466e-05</internalNodes>
      <leafValues>
        -9.4614875316619873e-01 5.2029997110366821e-01</leafValues></_>
    <_>
      <internalNodes>
        0 -1 141950 1.8607198726385832e-03</internalNodes>
      <leafValues>
        -7.7638584375381470e-01 5.8651113510131836e-01</leafValues></_>
    <_>
      <internalNodes>
        0 -1 57879 2.8108586557209492e-03</internalNodes>
      <leafValues>
        4.7630235552787781e-01 -9.7683244943618774e-01</leafValues></_></weakClassifiers></stage6>
</opencv_storage>
