<?xml version="1.0"?>
<opencv_storage>
<cascade>
  <stageType>BOOST</stageType>
  <featureType>HAAR</featureType>
  <height>15</height>
  <width>15</width>
  <stageParams>
    <boostType>GAB</boostType>
    <minHitRate>9.9500000476837158e-01</minHitRate>
    <maxFalseAlarm>5.0000000000000000e-01</maxFalseAlarm>
    <weightTrimRate>9.4999999999999996e-01</weightTrimRate>
    <maxDepth>1</maxDepth>
    <maxWeakCount>100</maxWeakCount></stageParams>
  <featureParams>
    <maxCatCount>0</maxCatCount>
    <featSize>1</featSize>
    <mode>BASIC</mode></featureParams>
  <stageNum>9</stageNum>
  <stages>
    <!-- stage 0 -->
    <_>
      <maxWeakCount>6</maxWeakCount>
      <stageThreshold>-1.0596498250961304e+00</stageThreshold>
      <weakClassifiers>
        <_>
          <internalNodes>
            0 -1 7 -4.3347440659999847e-02</internalNodes>
          <leafValues>
            9.1237902641296387e-01 -7.6277726888656616e-01</leafValues></_>
        <_>
          <internalNodes>
            0 -1 10 1.9262706860899925e-02</internalNodes>
          <leafValues>
            -6.8322992324829102e-01 7.3913377523422241e-01</leafValues></_>
        <_>
          <internalNodes>
            0 -1 2 3.2544981688261032e-02</internalNodes>
          <leafValues>
            -3.9074191451072693e-01 8.7576717138290405e-01</leafValues></_>
        <_>
          <internalNodes>
            0 -1 37 -2.9036812484264374e-03</internalNodes>
          <leafValues>
            4.5267507433891296e-01 -8.9225393533706665e-01</leafValues></_>
        <_>
          <internalNodes>
            0 -1 31 -3.3515725284814835e-02</internalNodes>
          <leafValues>
            7.3081904649734497e-01 -3.8770291209220886e-01</leafValues></_>
        <_>
          <internalNodes>
            0 -1 12 -4.9311645328998566e-02</internalNodes>
          <leafValues>
            -3.3729293942451477e-01 7.1212708950042725e-01</leafValues></_></weakClassifiers></_>
    <!-- stage 1 -->
    <_>
      <maxWeakCount>6</maxWeakCount>
      <stageThreshold>-1.3856536149978638e+00</stageThreshold>
      <weakClassifiers>
        <_>
          <internalNodes>
            0 -1 1 1.6190653666853905e-02</internalNodes>
          <leafValues>
            -7.3144102096557617e-01 8.0134356021881104e-01</leafValues></_>
        <_>
          <internalNodes>
            0 -1 19 2.1713215857744217e-02</internalNodes>
          <leafValues>
            -4.7105807065963745e-01 8.4742981195449829e-01</leafValues></_>
        <_>
          <internalNodes>
            0 -1 6 -7.7548563480377197e-02</internalNodes>
          <leafValues>
            -6.0687887668609619e-01 6.1018139123916626e-01</leafValues></_>
        <_>
          <internalNodes>
            0 -1 8 -1.6546085476875305e-02</internalNodes>
          <leafValues>
            4.4756621122360229e-01 -7.6203906536102295e-01</leafValues></_>
        <_>
          <internalNodes>
            0 -1 42 -8.4992758929729462e-03</internalNodes>
          <leafValues>
            5.6611233949661255e-01 -5.2696853876113892e-01</leafValues></_>
        <_>
          <internalNodes>
            0 -1 25 4.8097088001668453e-03</internalNodes>
          <leafValues>
            -5.2832877635955811e-01 4.9567168951034546e-01</leafValues></_></weakClassifiers></_>
    <!-- stage 2 -->
    <_>
      <maxWeakCount>3</maxWeakCount>
      <stageThreshold>-4.9780553579330444e-01</stageThreshold>
      <weakClassifiers>
        <_>
          <internalNodes>
            0 -1 29 -5.1606729626655579e-02</internalNodes>
          <leafValues>
            -6.5582370758056641e-01 7.9384464025497437e-01</leafValues></_>
        <_>
          <internalNodes>
            0 -1 19 2.8279636055231094e-02</internalNodes>
          <leafValues>
            -5.1769286394119263e-01 8.4497857093811035e-01</leafValues></_>
        <_>
          <internalNodes>
            0 -1 21 -1.1671526357531548e-02</internalNodes>
          <leafValues>
            6.7571103572845459e-01 -5.9004527330398560e-01</leafValues></_></weakClassifiers></_>
    <!-- stage 3 -->
    <_>
      <maxWeakCount>7</maxWeakCount>
      <stageThreshold>-1.0113220214843750e+00</stageThreshold>
      <weakClassifiers>
        <_>
          <internalNodes>
            0 -1 9 7.1971297264099121e-02</internalNodes>
          <leafValues>
            -4.8027443885803223e-01 8.5059976577758789e-01</leafValues></_>
        <_>
          <internalNodes>
            0 -1 17 2.2656798362731934e-02</internalNodes>
          <leafValues>
            -5.7430016994476318e-01 6.5489327907562256e-01</leafValues></_>
        <_>
          <internalNodes>
            0 -1 27 1.0057454928755760e-02</internalNodes>
          <leafValues>
            -4.1466879844665527e-01 6.4556694030761719e-01</leafValues></_>
        <_>
          <internalNodes>
            0 -1 15 1.2426506727933884e-03</internalNodes>
          <leafValues>
            -7.7610027790069580e-01 3.1027096509933472e-01</leafValues></_>
        <_>
          <internalNodes>
            0 -1 34 2.8838556259870529e-02</internalNodes>
          <leafValues>
            2.4499532580375671e-01 -9.2202526330947876e-01</leafValues></_>
        <_>
          <internalNodes>
            0 -1 49 -2.0979050546884537e-02</internalNodes>
          <leafValues>
            7.5309467315673828e-01 -3.6536097526550293e-01</leafValues></_>
        <_>
          <internalNodes>
            0 -1 35 -3.0453482177108526e-03</internalNodes>
          <leafValues>
            2.6801607012748718e-01 -8.6769878864288330e-01</leafValues></_></weakClassifiers></_>
    <!-- stage 4 -->
    <_>
      <maxWeakCount>6</maxWeakCount>
      <stageThreshold>-1.0408455133438110e+00</stageThreshold>
      <weakClassifiers>
        <_>
          <internalNodes>
            0 -1 14 -1.5702940523624420e-02</internalNodes>
          <leafValues>
            8.4888887405395508e-01 -4.3999999761581421e-01</leafValues></_>
        <_>
          <internalNodes>
            0 -1 3 2.5303503498435020e-02</internalNodes>
          <leafValues>
            -4.3464165925979614e-01 7.7944117784500122e-01</leafValues></_>
        <_>
          <internalNodes>
            0 -1 11 2.6425267569720745e-03</internalNodes>
          <leafValues>
            -7.9386800527572632e-01 4.5899307727813721e-01</leafValues></_>
        <_>
          <internalNodes>
            0 -1 46 -2.2184799890965223e-03</internalNodes>
          <leafValues>
            6.9662487506866455e-01 -4.4598212838172913e-01</leafValues></_>
        <_>
          <internalNodes>
            0 -1 30 -4.0706589818000793e-02</internalNodes>
          <leafValues>
            6.0848420858383179e-01 -4.2674237489700317e-01</leafValues></_>
        <_>
          <internalNodes>
            0 -1 33 -1.1592721566557884e-03</internalNodes>
          <leafValues>
            3.1232902407646179e-01 -7.8769904375076294e-01</leafValues></_></weakClassifiers></_>
    <!-- stage 5 -->
    <_>
      <maxWeakCount>7</maxWeakCount>
      <stageThreshold>-1.4762284755706787e+00</stageThreshold>
      <weakClassifiers>
        <_>
          <internalNodes>
            0 -1 3 1.6880441457033157e-02</internalNodes>
          <leafValues>
            -5.4810810089111328e-01 7.2626507282257080e-01</leafValues></_>
        <_>
          <internalNodes>
            0 -1 19 3.5008858889341354e-02</internalNodes>
          <leafValues>
            -3.8311758637428284e-01 7.8314477205276489e-01</leafValues></_>
        <_>
          <internalNodes>
            0 -1 20 -8.0499500036239624e-03</internalNodes>
          <leafValues>
            3.9267399907112122e-01 -6.9914811849594116e-01</leafValues></_>
        <_>
          <internalNodes>
            0 -1 24 -3.4324489533901215e-02</internalNodes>
          <leafValues>
            7.9939979314804077e-01 -3.3041155338287354e-01</leafValues></_>
        <_>
          <internalNodes>
            0 -1 41 -3.9694695733487606e-03</internalNodes>
          <leafValues>
            -7.9664677381515503e-01 2.9254668951034546e-01</leafValues></_>
        <_>
          <internalNodes>
            0 -1 50 9.0997474035248160e-04</internalNodes>
          <leafValues>
            2.7975425124168396e-01 -8.0528503656387329e-01</leafValues></_>
        <_>
          <internalNodes>
            0 -1 0 -9.3860402703285217e-02</internalNodes>
          <leafValues>
            8.5525476932525635e-01 -2.7292370796203613e-01</leafValues></_></weakClassifiers></_>
    <!-- stage 6 -->
    <_>
      <maxWeakCount>6</maxWeakCount>
      <stageThreshold>-8.4206020832061768e-01</stageThreshold>
      <weakClassifiers>
        <_>
          <internalNodes>
            0 -1 23 -5.3856216371059418e-02</internalNodes>
          <leafValues>
            8.1940549612045288e-01 -3.7880033254623413e-01</leafValues></_>
        <_>
          <internalNodes>
            0 -1 38 -5.0727866590023041e-02</internalNodes>
          <leafValues>
            -7.1053487062454224e-01 5.8480781316757202e-01</leafValues></_>
        <_>
          <internalNodes>
            0 -1 43 -1.2721132487058640e-02</internalNodes>
          <leafValues>
            7.3884969949722290e-01 -4.0258333086967468e-01</leafValues></_>
        <_>
          <internalNodes>
            0 -1 39 3.9383553666993976e-04</internalNodes>
          <leafValues>
            2.8485655784606934e-01 -9.0061992406845093e-01</leafValues></_>
        <_>
          <internalNodes>
            0 -1 40 -9.4260200858116150e-03</internalNodes>
          <leafValues>
            6.1499744653701782e-01 -3.8387694954872131e-01</leafValues></_>
        <_>
          <internalNodes>
            0 -1 13 3.4316465258598328e-02</internalNodes>
          <leafValues>
            -2.4999563395977020e-01 8.6010831594467163e-01</leafValues></_></weakClassifiers></_>
    <!-- stage 7 -->
    <_>
      <maxWeakCount>8</maxWeakCount>
      <stageThreshold>-1.0456591844558716e+00</stageThreshold>
      <weakClassifiers>
        <_>
          <internalNodes>
            0 -1 22 1.6416953876614571e-02</internalNodes>
          <leafValues>
            -2.6585888862609863e-01 8.5973697900772095e-01</leafValues></_>
        <_>
          <internalNodes>
            0 -1 4 -2.4454111699014902e-03</internalNodes>
          <leafValues>
            -8.3438175916671753e-01 4.2451918125152588e-01</leafValues></_>
        <_>
          <internalNodes>
            0 -1 19 4.5558799058198929e-02</internalNodes>
          <leafValues>
            -3.3931061625480652e-01 8.4314841032028198e-01</leafValues></_>
        <_>
          <internalNodes>
            0 -1 5 2.9465790838003159e-02</internalNodes>
          <leafValues>
            2.7762418985366821e-01 -9.4189488887786865e-01</leafValues></_>
        <_>
          <internalNodes>
            0 -1 48 -7.3425367474555969e-02</internalNodes>
          <leafValues>
            -4.8824611306190491e-01 4.2282471060752869e-01</leafValues></_>
        <_>
          <internalNodes>
            0 -1 26 -2.2560982033610344e-03</internalNodes>
          <leafValues>
            2.5984200835227966e-01 -7.2271722555160522e-01</leafValues></_>
        <_>
          <internalNodes>
            0 -1 18 4.9925826489925385e-02</internalNodes>
          <leafValues>
            1.9569119811058044e-01 -8.5915017127990723e-01</leafValues></_>
        <_>
          <internalNodes>
            0 -1 32 -1.2662570923566818e-02</internalNodes>
          <leafValues>
            -8.8726514577865601e-01 1.4898076653480530e-01</leafValues></_></weakClassifiers></_>
    <!-- stage 8 -->
    <_>
      <maxWeakCount>8</maxWeakCount>
      <stageThreshold>-1.1301071643829346e+00</stageThreshold>
      <weakClassifiers>
        <_>
          <internalNodes>
            0 -1 36 -2.0255887880921364e-02</internalNodes>
          <leafValues>
            7.1498531103134155e-01 -4.8016700148582458e-01</leafValues></_>
        <_>
          <internalNodes>
            0 -1 14 -2.9131069779396057e-02</internalNodes>
          <leafValues>
            7.2553014755249023e-01 -3.3716472983360291e-01</leafValues></_>
        <_>
          <internalNodes>
            0 -1 27 1.1241838335990906e-02</internalNodes>
          <leafValues>
            -3.9191949367523193e-01 5.7249629497528076e-01</leafValues></_>
        <_>
          <internalNodes>
            0 -1 16 7.5544221326708794e-03</internalNodes>
          <leafValues>
            2.9387575387954712e-01 -7.5066035985946655e-01</leafValues></_>
        <_>
          <internalNodes>
            0 -1 28 -1.7475698841735721e-03</internalNodes>
          <leafValues>
            -7.8571248054504395e-01 2.8105607628822327e-01</leafValues></_>
        <_>
          <internalNodes>
            0 -1 47 -3.5430267453193665e-02</internalNodes>
          <leafValues>
            4.9466556310653687e-01 -4.4190374016761780e-01</leafValues></_>
        <_>
          <internalNodes>
            0 -1 45 -1.1488421820104122e-02</internalNodes>
          <leafValues>
            6.9723576307296753e-01 -3.0056399106979370e-01</leafValues></_>
        <_>
          <internalNodes>
            0 -1 44 -3.3310154685750604e-04</internalNodes>
          <leafValues>
            2.4667999148368835e-01 -8.4078431129455566e-01</leafValues></_></weakClassifiers></_></stages>
  <features>
    <_>
      <rects>
        <_>
          0 2 4 11 -1.</_>
        <_>
          2 2 2 11 2.</_></rects>
      <tilted>0</tilted></_>
    <_>
      <rects>
        <_>
          1 7 4 2 -1.</_>
        <_>
          3 7 2 2 2.</_></rects>
      <tilted>0</tilted></_>
    <_>
      <rects>
        <_>
          1 7 4 3 -1.</_>
        <_>
          3 7 2 3 2.</_></rects>
      <tilted>0</tilted></_>
    <_>
      <rects>
        <_>
          2 4 2 8 -1.</_>
        <_>
          3 4 1 8 2.</_></rects>
      <tilted>0</tilted></_>
    <_>
      <rects>
        <_>
          2 5 6 4 -1.</_>
        <_>
          2 7 6 2 2.</_></rects>
      <tilted>0</tilted></_>
    <_>
      <rects>
        <_>
          2 5 6 8 -1.</_>
        <_>
          2 9 6 4 2.</_></rects>
      <tilted>0</tilted></_>
    <_>
      <rects>
        <_>
          2 12 12 1 -1.</_>
        <_>
          6 12 4 1 2.</_></rects>
      <tilted>0</tilted></_>
    <_>
      <rects>
        <_>
          3 3 6 6 -1.</_>
        <_>
          3 3 3 3 2.</_>
        <_>
          6 6 3 3 2.</_></rects>
      <tilted>0</tilted></_>
    <_>
      <rects>
        <_>
          3 4 6 4 -1.</_>
        <_>
          3 4 3 2 2.</_>
        <_>
          6 6 3 2 2.</_></rects>
      <tilted>0</tilted></_>
    <_>
      <rects>
        <_>
          3 7 6 6 -1.</_>
        <_>
          3 7 3 3 2.</_>
        <_>
          6 10 3 3 2.</_></rects>
      <tilted>0</tilted></_>
    <_>
      <rects>
        <_>
          3 8 6 4 -1.</_>
        <_>
          3 8 3 2 2.</_>
        <_>
          6 10 3 2 2.</_></rects>
      <tilted>0</tilted></_>
    <_>
      <rects>
        <_>
          3 10 8 3 -1.</_>
        <_>
          7 10 4 3 2.</_></rects>
      <tilted>0</tilted></_>
    <_>
      <rects>
        <_>
          3 14 12 1 -1.</_>
        <_>
          7 14 4 1 2.</_></rects>
      <tilted>0</tilted></_>
    <_>
      <rects>
        <_>
          4 3 7 2 -1.</_>
        <_>
          4 4 7 1 2.</_></rects>
      <tilted>0</tilted></_>
    <_>
      <rects>
        <_>
          4 4 7 2 -1.</_>
        <_>
          4 5 7 1 2.</_></rects>
      <tilted>0</tilted></_>
    <_>
      <rects>
        <_>
          4 5 1 4 -1.</_>
        <_>
          4 7 1 2 2.</_></rects>
      <tilted>0</tilted></_>
    <_>
      <rects>
        <_>
          4 5 8 6 -1.</_>
        <_>
          8 5 4 6 2.</_></rects>
      <tilted>0</tilted></_>
    <_>
      <rects>
        <_>
          5 1 4 4 -1.</_>
        <_>
          5 3 4 2 2.</_></rects>
      <tilted>0</tilted></_>
    <_>
      <rects>
        <_>
          5 2 8 12 -1.</_>
        <_>
          5 2 4 6 2.</_>
        <_>
          9 8 4 6 2.</_></rects>
      <tilted>0</tilted></_>
    <_>
      <rects>
        <_>
          5 2 6 2 -1.</_>
        <_>
          5 3 6 1 2.</_></rects>
      <tilted>0</tilted></_>
    <_>
      <rects>
        <_>
          5 3 2 6 -1.</_>
        <_>
          5 3 1 3 2.</_>
        <_>
          6 6 1 3 2.</_></rects>
      <tilted>0</tilted></_>
    <_>
      <rects>
        <_>
          5 6 2 4 -1.</_>
        <_>
          6 6 1 4 2.</_></rects>
      <tilted>0</tilted></_>
    <_>
      <rects>
        <_>
          5 10 5 2 -1.</_>
        <_>
          5 11 5 1 2.</_></rects>
      <tilted>0</tilted></_>
    <_>
      <rects>
        <_>
          5 11 5 4 -1.</_>
        <_>
          5 13 5 2 2.</_></rects>
      <tilted>0</tilted></_>
    <_>
      <rects>
        <_>
          5 12 6 2 -1.</_>
        <_>
          5 13 6 1 2.</_></rects>
      <tilted>0</tilted></_>
    <_>
      <rects>
        <_>
          6 0 2 8 -1.</_>
        <_>
          6 0 1 4 2.</_>
        <_>
          7 4 1 4 2.</_></rects>
      <tilted>0</tilted></_>
    <_>
      <rects>
        <_>
          6 4 1 4 -1.</_>
        <_>
          6 6 1 2 2.</_></rects>
      <tilted>0</tilted></_>
    <_>
      <rects>
        <_>
          6 5 2 6 -1.</_>
        <_>
          7 5 1 6 2.</_></rects>
      <tilted>0</tilted></_>
    <_>
      <rects>
        <_>
          6 8 6 1 -1.</_>
        <_>
          9 8 3 1 2.</_></rects>
      <tilted>0</tilted></_>
    <_>
      <rects>
        <_>
          6 9 1 6 -1.</_>
        <_>
          6 11 1 2 2.</_></rects>
      <tilted>0</tilted></_>
    <_>
      <rects>
        <_>
          6 11 4 4 -1.</_>
        <_>
          6 13 4 2 2.</_></rects>
      <tilted>0</tilted></_>
    <_>
      <rects>
        <_>
          7 1 6 4 -1.</_>
        <_>
          7 1 3 2 2.</_>
        <_>
          10 3 3 2 2.</_></rects>
      <tilted>0</tilted></_>
    <_>
      <rects>
        <_>
          7 2 4 10 -1.</_>
        <_>
          7 2 2 5 2.</_>
        <_>
          9 7 2 5 2.</_></rects>
      <tilted>0</tilted></_>
    <_>
      <rects>
        <_>
          7 3 6 5 -1.</_>
        <_>
          10 3 3 5 2.</_></rects>
      <tilted>0</tilted></_>
    <_>
      <rects>
        <_>
          7 3 3 12 -1.</_>
        <_>
          7 9 3 6 2.</_></rects>
      <tilted>0</tilted></_>
    <_>
      <rects>
        <_>
          7 7 6 6 -1.</_>
        <_>
          7 7 3 3 2.</_>
        <_>
          10 10 3 3 2.</_></rects>
      <tilted>0</tilted></_>
    <_>
      <rects>
        <_>
          7 11 2 4 -1.</_>
        <_>
          7 13 2 2 2.</_></rects>
      <tilted>0</tilted></_>
    <_>
      <rects>
        <_>
          7 11 6 2 -1.</_>
        <_>
          10 11 3 2 2.</_></rects>
      <tilted>0</tilted></_>
    <_>
      <rects>
        <_>
          8 1 1 6 -1.</_>
        <_>
          8 3 1 2 2.</_></rects>
      <tilted>0</tilted></_>
    <_>
      <rects>
        <_>
          8 3 2 2 -1.</_>
        <_>
          9 3 1 2 2.</_></rects>
      <tilted>0</tilted></_>
    <_>
      <rects>
        <_>
          8 7 2 4 -1.</_>
        <_>
          8 7 1 2 2.</_>
        <_>
          9 9 1 2 2.</_></rects>
      <tilted>0</tilted></_>
    <_>
      <rects>
        <_>
          8 8 6 2 -1.</_>
        <_>
          8 8 3 1 2.</_>
        <_>
          11 9 3 1 2.</_></rects>
      <tilted>0</tilted></_>
    <_>
      <rects>
        <_>
          8 11 1 4 -1.</_>
        <_>
          8 13 1 2 2.</_></rects>
      <tilted>0</tilted></_>
    <_>
      <rects>
        <_>
          9 2 4 2 -1.</_>
        <_>
          9 2 2 1 2.</_>
        <_>
          11 3 2 1 2.</_></rects>
      <tilted>0</tilted></_>
    <_>
      <rects>
        <_>
          9 11 2 3 -1.</_>
        <_>
          10 11 1 3 2.</_></rects>
      <tilted>0</tilted></_>
    <_>
      <rects>
        <_>
          10 3 4 2 -1.</_>
        <_>
          10 3 2 1 2.</_>
        <_>
          12 4 2 1 2.</_></rects>
      <tilted>0</tilted></_>
    <_>
      <rects>
        <_>
          11 3 2 2 -1.</_>
        <_>
          11 3 1 1 2.</_>
        <_>
          12 4 1 1 2.</_></rects>
      <tilted>0</tilted></_>
    <_>
      <rects>
        <_>
          11 5 4 6 -1.</_>
        <_>
          13 5 2 6 2.</_></rects>
      <tilted>0</tilted></_>
    <_>
      <rects>
        <_>
          12 2 1 12 -1.</_>
        <_>
          12 6 1 4 2.</_></rects>
      <tilted>0</tilted></_>
    <_>
      <rects>
        <_>
          12 5 2 8 -1.</_>
        <_>
          13 5 1 8 2.</_></rects>
      <tilted>0</tilted></_>
    <_>
      <rects>
        <_>
          12 8 2 2 -1.</_>
        <_>
          12 9 2 1 2.</_></rects>
      <tilted>0</tilted></_></features></cascade>
</opencv_storage>
