<?xml version="1.0"?>
<opencv_storage>
<stage2>
  <maxWeakCount>7</maxWeakCount>
  <stageThreshold>-1.1931812763214111e+00</stageThreshold>
  <weakClassifiers>
    <_>
      <internalNodes>
        0 -1 10839 5.5796869099140167e-02</internalNodes>
      <leafValues>
        -6.3947635889053345e-01 8.1464874744415283e-01</leafValues></_>
    <_>
      <internalNodes>
        0 -1 18303 9.0670753270387650e-03</internalNodes>
      <leafValues>
        -5.3007239103317261e-01 7.5872737169265747e-01</leafValues></_>
    <_>
      <internalNodes>
        0 -1 16969 4.7609908506274223e-03</internalNodes>
      <leafValues>
        -4.2980340123176575e-01 5.8505672216415405e-01</leafValues></_>
    <_>
      <internalNodes>
        0 -1 23424 -2.6993406936526299e-03</internalNodes>
      <leafValues>
        7.4549061059951782e-01 -3.4596294164657593e-01</leafValues></_>
    <_>
      <internalNodes>
        0 -1 11005 -1.3302344828844070e-02</internalNodes>
      <leafValues>
        3.5855138301849365e-01 -6.8316757678985596e-01</leafValues></_>
    <_>
      <internalNodes>
        0 -1 17171 -1.8970770761370659e-02</internalNodes>
      <leafValues>
        -9.0218973159790039e-01 1.7939607799053192e-01</leafValues></_>
    <_>
      <internalNodes>
        0 -1 13223 4.0644764900207520e-02</internalNodes>
      <leafValues>
        2.1418637037277222e-01 -8.6533242464065552e-01</leafValues></_></weakClassifiers></stage2>
</opencv_storage>
