<?xml version="1.0"?>
<opencv_storage>
<cascade>
  <stageType>BOOST</stageType>
  <featureType>HAAR</featureType>
  <height>24</height>
  <width>24</width>
  <stageParams>
    <boostType>GAB</boostType>
    <minHitRate>9.9500000476837158e-01</minHitRate>
    <maxFalseAlarm>3.0000001192092896e-01</maxFalseAlarm>
    <weightTrimRate>9.4999999999999996e-01</weightTrimRate>
    <maxDepth>1</maxDepth>
    <maxWeakCount>100</maxWeakCount></stageParams>
  <featureParams>
    <maxCatCount>0</maxCatCount>
    <featSize>1</featSize>
    <mode>BASIC</mode></featureParams>
  <stageNum>10</stageNum>
  <stages>
    <!-- stage 0 -->
    <_>
      <maxWeakCount>2</maxWeakCount>
      <stageThreshold>-1.8588608503341675e-01</stageThreshold>
      <weakClassifiers>
        <_>
          <internalNodes>
            0 -1 13 -1.5800535678863525e-02</internalNodes>
          <leafValues>
            7.1929824352264404e-01 -9.7849464416503906e-01</leafValues></_>
        <_>
          <internalNodes>
            0 -1 7 3.5922087728977203e-02</internalNodes>
          <leafValues>
            -9.0518432855606079e-01 8.4194737672805786e-01</leafValues></_></weakClassifiers></_>
    <!-- stage 1 -->
    <_>
      <maxWeakCount>2</maxWeakCount>
      <stageThreshold>-2.1690177917480469e-01</stageThreshold>
      <weakClassifiers>
        <_>
          <internalNodes>
            0 -1 15 -1.2403163127601147e-02</internalNodes>
          <leafValues>
            9.4936710596084595e-01 -7.9185521602630615e-01</leafValues></_>
        <_>
          <internalNodes>
            0 -1 24 -3.3048033714294434e-02</internalNodes>
          <leafValues>
            -1. 5.7495343685150146e-01</leafValues></_></weakClassifiers></_>
    <!-- stage 2 -->
    <_>
      <maxWeakCount>2</maxWeakCount>
      <stageThreshold>-1.5594561398029327e-01</stageThreshold>
      <weakClassifiers>
        <_>
          <internalNodes>
            0 -1 25 -8.2062464207410812e-03</internalNodes>
          <leafValues>
            8.5714286565780640e-01 -9.1089111566543579e-01</leafValues></_>
        <_>
          <internalNodes>
            0 -1 29 -1.7527166055515409e-03</internalNodes>
          <leafValues>
            7.5494545698165894e-01 -9.2410445213317871e-01</leafValues></_></weakClassifiers></_>
    <!-- stage 3 -->
    <_>
      <maxWeakCount>2</maxWeakCount>
      <stageThreshold>-1.8278050422668457e-01</stageThreshold>
      <weakClassifiers>
        <_>
          <internalNodes>
            0 -1 32 8.3283632993698120e-03</internalNodes>
          <leafValues>
            -8.3255815505981445e-01 9.2941176891326904e-01</leafValues></_>
        <_>
          <internalNodes>
            0 -1 11 6.8375095725059509e-03</internalNodes>
          <leafValues>
            -1. 6.4977765083312988e-01</leafValues></_></weakClassifiers></_>
    <!-- stage 4 -->
    <_>
      <maxWeakCount>3</maxWeakCount>
      <stageThreshold>-5.8762097358703613e-01</stageThreshold>
      <weakClassifiers>
        <_>
          <internalNodes>
            0 -1 18 -1.9957304000854492e-02</internalNodes>
          <leafValues>
            1. -7.1673822402954102e-01</leafValues></_>
        <_>
          <internalNodes>
            0 -1 22 -1.3321674428880215e-02</internalNodes>
          <leafValues>
            -6.8212068080902100e-01 7.0517122745513916e-01</leafValues></_>
        <_>
          <internalNodes>
            0 -1 0 3.6109723150730133e-02</internalNodes>
          <leafValues>
            -5.7605403661727905e-01 9.0805011987686157e-01</leafValues></_></weakClassifiers></_>
    <!-- stage 5 -->
    <_>
      <maxWeakCount>5</maxWeakCount>
      <stageThreshold>-9.3237578868865967e-01</stageThreshold>
      <weakClassifiers>
        <_>
          <internalNodes>
            0 -1 17 -1.1920012533664703e-02</internalNodes>
          <leafValues>
            8.7654322385787964e-01 -7.8082191944122314e-01</leafValues></_>
        <_>
          <internalNodes>
            0 -1 3 3.5887200385332108e-02</internalNodes>
          <leafValues>
            -5.8170145750045776e-01 8.5465192794799805e-01</leafValues></_>
        <_>
          <internalNodes>
            0 -1 10 -1.5043072402477264e-02</internalNodes>
          <leafValues>
            4.9385753273963928e-01 -9.2243421077728271e-01</leafValues></_>
        <_>
          <internalNodes>
            0 -1 21 1.0491220280528069e-02</internalNodes>
          <leafValues>
            -5.6476670503616333e-01 8.4179323911666870e-01</leafValues></_>
        <_>
          <internalNodes>
            0 -1 6 -4.7080079093575478e-03</internalNodes>
          <leafValues>
            5.2556842565536499e-01 -9.0550315380096436e-01</leafValues></_></weakClassifiers></_>
    <!-- stage 6 -->
    <_>
      <maxWeakCount>5</maxWeakCount>
      <stageThreshold>-1.1522302627563477e+00</stageThreshold>
      <weakClassifiers>
        <_>
          <internalNodes>
            0 -1 31 1.4518650248646736e-02</internalNodes>
          <leafValues>
            -7.4074071645736694e-01 7.1428573131561279e-01</leafValues></_>
        <_>
          <internalNodes>
            0 -1 2 3.4244887530803680e-02</internalNodes>
          <leafValues>
            -6.3170605897903442e-01 8.3327507972717285e-01</leafValues></_>
        <_>
          <internalNodes>
            0 -1 20 -6.9159825216047466e-05</internalNodes>
          <leafValues>
            -9.4614875316619873e-01 5.2029997110366821e-01</leafValues></_>
        <_>
          <internalNodes>
            0 -1 27 1.8607198726385832e-03</internalNodes>
          <leafValues>
            -7.7638584375381470e-01 5.8651113510131836e-01</leafValues></_>
        <_>
          <internalNodes>
            0 -1 8 2.8108586557209492e-03</internalNodes>
          <leafValues>
            4.7630235552787781e-01 -9.7683244943618774e-01</leafValues></_></weakClassifiers></_>
    <!-- stage 7 -->
    <_>
      <maxWeakCount>4</maxWeakCount>
      <stageThreshold>-4.1416931152343750e-01</stageThreshold>
      <weakClassifiers>
        <_>
          <internalNodes>
            0 -1 26 -2.0179720595479012e-03</internalNodes>
          <leafValues>
            7.9746836423873901e-01 -7.3755657672882080e-01</leafValues></_>
        <_>
          <internalNodes>
            0 -1 20 1.0244423901895061e-04</internalNodes>
          <leafValues>
            5.6309372186660767e-01 -9.4154810905456543e-01</leafValues></_>
        <_>
          <internalNodes>
            0 -1 19 -2.2437665611505508e-03</internalNodes>
          <leafValues>
            5.1470202207565308e-01 -8.0503571033477783e-01</leafValues></_>
        <_>
          <internalNodes>
            0 -1 30 -9.7177196294069290e-03</internalNodes>
          <leafValues>
            7.5023335218429565e-01 -6.7525565624237061e-01</leafValues></_></weakClassifiers></_>
    <!-- stage 8 -->
    <_>
      <maxWeakCount>4</maxWeakCount>
      <stageThreshold>-6.1624741554260254e-01</stageThreshold>
      <weakClassifiers>
        <_>
          <internalNodes>
            0 -1 16 -7.5894976034760475e-03</internalNodes>
          <leafValues>
            7.4117648601531982e-01 -7.5813955068588257e-01</leafValues></_>
        <_>
          <internalNodes>
            0 -1 12 -2.4433864280581474e-02</internalNodes>
          <leafValues>
            6.4648020267486572e-01 -6.4399904012680054e-01</leafValues></_>
        <_>
          <internalNodes>
            0 -1 14 1.1108620674349368e-04</internalNodes>
          <leafValues>
            4.1141614317893982e-01 -9.8956620693206787e-01</leafValues></_>
        <_>
          <internalNodes>
            0 -1 23 -2.1505884360522032e-03</internalNodes>
          <leafValues>
            3.9590919017791748e-01 -9.1600424051284790e-01</leafValues></_></weakClassifiers></_>
    <!-- stage 9 -->
    <_>
      <maxWeakCount>6</maxWeakCount>
      <stageThreshold>-1.2270958423614502e+00</stageThreshold>
      <weakClassifiers>
        <_>
          <internalNodes>
            0 -1 5 -5.2999719977378845e-02</internalNodes>
          <leafValues>
            5.5339807271957397e-01 -7.9695433378219604e-01</leafValues></_>
        <_>
          <internalNodes>
            0 -1 14 -1.0656426456989720e-04</internalNodes>
          <leafValues>
            -9.4989931583404541e-01 4.5021378993988037e-01</leafValues></_>
        <_>
          <internalNodes>
            0 -1 9 -1.4955028891563416e-03</internalNodes>
          <leafValues>
            -9.5919924974441528e-01 2.9635563492774963e-01</leafValues></_>
        <_>
          <internalNodes>
            0 -1 28 2.5780883152037859e-04</internalNodes>
          <leafValues>
            4.1078153252601624e-01 -9.8632687330245972e-01</leafValues></_>
        <_>
          <internalNodes>
            0 -1 4 3.5711873322725296e-02</internalNodes>
          <leafValues>
            -6.0686790943145752e-01 6.9755584001541138e-01</leafValues></_>
        <_>
          <internalNodes>
            0 -1 1 3.8999045500531793e-04</internalNodes>
          <leafValues>
            4.1948857903480530e-01 -9.4756329059600830e-01</leafValues></_></weakClassifiers></_></stages>
  <features>
    <_>
      <rects>
        <_>
          1 9 6 15 -1.</_>
        <_>
          4 9 3 15 2.</_></rects>
      <tilted>0</tilted></_>
    <_>
      <rects>
        <_>
          1 12 4 2 -1.</_>
        <_>
          1 13 4 1 2.</_></rects>
      <tilted>0</tilted></_>
    <_>
      <rects>
        <_>
          2 2 6 12 -1.</_>
        <_>
          2 2 3 6 2.</_>
        <_>
          5 8 3 6 2.</_></rects>
      <tilted>0</tilted></_>
    <_>
      <rects>
        <_>
          2 2 10 6 -1.</_>
        <_>
          2 2 5 3 2.</_>
        <_>
          7 5 5 3 2.</_></rects>
      <tilted>0</tilted></_>
    <_>
      <rects>
        <_>
          2 2 12 6 -1.</_>
        <_>
          2 2 6 3 2.</_>
        <_>
          8 5 6 3 2.</_></rects>
      <tilted>0</tilted></_>
    <_>
      <rects>
        <_>
          2 17 20 6 -1.</_>
        <_>
          2 20 20 3 2.</_></rects>
      <tilted>0</tilted></_>
    <_>
      <rects>
        <_>
          4 5 8 4 -1.</_>
        <_>
          4 5 4 2 2.</_>
        <_>
          8 7 4 2 2.</_></rects>
      <tilted>0</tilted></_>
    <_>
      <rects>
        <_>
          4 10 10 12 -1.</_>
        <_>
          4 10 5 6 2.</_>
        <_>
          9 16 5 6 2.</_></rects>
      <tilted>0</tilted></_>
    <_>
      <rects>
        <_>
          4 12 6 6 -1.</_>
        <_>
          4 15 6 3 2.</_></rects>
      <tilted>0</tilted></_>
    <_>
      <rects>
        <_>
          8 6 8 4 -1.</_>
        <_>
          12 6 4 4 2.</_></rects>
      <tilted>0</tilted></_>
    <_>
      <rects>
        <_>
          8 6 11 4 -1.</_>
        <_>
          8 8 11 2 2.</_></rects>
      <tilted>0</tilted></_>
    <_>
      <rects>
        <_>
          9 13 9 6 -1.</_>
        <_>
          9 16 9 3 2.</_></rects>
      <tilted>0</tilted></_>
    <_>
      <rects>
        <_>
          10 1 10 6 -1.</_>
        <_>
          10 1 5 3 2.</_>
        <_>
          15 4 5 3 2.</_></rects>
      <tilted>0</tilted></_>
    <_>
      <rects>
        <_>
          10 4 4 8 -1.</_>
        <_>
          10 8 4 4 2.</_></rects>
      <tilted>0</tilted></_>
    <_>
      <rects>
        <_>
          11 17 2 1 -1.</_>
        <_>
          12 17 1 1 2.</_></rects>
      <tilted>0</tilted></_>
    <_>
      <rects>
        <_>
          12 8 2 11 -1.</_>
        <_>
          13 8 1 11 2.</_></rects>
      <tilted>0</tilted></_>
    <_>
      <rects>
        <_>
          12 9 2 3 -1.</_>
        <_>
          13 9 1 3 2.</_></rects>
      <tilted>0</tilted></_>
    <_>
      <rects>
        <_>
          12 9 2 7 -1.</_>
        <_>
          13 9 1 7 2.</_></rects>
      <tilted>0</tilted></_>
    <_>
      <rects>
        <_>
          12 9 2 9 -1.</_>
        <_>
          13 9 1 9 2.</_></rects>
      <tilted>0</tilted></_>
    <_>
      <rects>
        <_>
          12 16 4 1 -1.</_>
        <_>
          14 16 2 1 2.</_></rects>
      <tilted>0</tilted></_>
    <_>
      <rects>
        <_>
          12 18 2 1 -1.</_>
        <_>
          13 18 1 1 2.</_></rects>
      <tilted>0</tilted></_>
    <_>
      <rects>
        <_>
          13 10 2 6 -1.</_>
        <_>
          14 10 1 6 2.</_></rects>
      <tilted>0</tilted></_>
    <_>
      <rects>
        <_>
          13 12 1 12 -1.</_>
        <_>
          13 16 1 4 2.</_></rects>
      <tilted>0</tilted></_>
    <_>
      <rects>
        <_>
          13 18 10 1 -1.</_>
        <_>
          18 18 5 1 2.</_></rects>
      <tilted>0</tilted></_>
    <_>
      <rects>
        <_>
          14 8 2 9 -1.</_>
        <_>
          14 11 2 3 2.</_></rects>
      <tilted>0</tilted></_>
    <_>
      <rects>
        <_>
          14 10 4 5 -1.</_>
        <_>
          16 10 2 5 2.</_></rects>
      <tilted>0</tilted></_>
    <_>
      <rects>
        <_>
          14 15 2 2 -1.</_>
        <_>
          14 16 2 1 2.</_></rects>
      <tilted>0</tilted></_>
    <_>
      <rects>
        <_>
          15 8 4 2 -1.</_>
        <_>
          17 8 2 2 2.</_></rects>
      <tilted>0</tilted></_>
    <_>
      <rects>
        <_>
          15 12 5 2 -1.</_>
        <_>
          15 13 5 1 2.</_></rects>
      <tilted>0</tilted></_>
    <_>
      <rects>
        <_>
          15 13 1 4 -1.</_>
        <_>
          15 15 1 2 2.</_></rects>
      <tilted>0</tilted></_>
    <_>
      <rects>
        <_>
          17 2 4 8 -1.</_>
        <_>
          17 2 2 4 2.</_>
        <_>
          19 6 2 4 2.</_></rects>
      <tilted>0</tilted></_>
    <_>
      <rects>
        <_>
          17 3 2 12 -1.</_>
        <_>
          17 3 1 6 2.</_>
        <_>
          18 9 1 6 2.</_></rects>
      <tilted>0</tilted></_>
    <_>
      <rects>
        <_>
          17 9 2 6 -1.</_>
        <_>
          18 9 1 6 2.</_></rects>
      <tilted>0</tilted></_></features></cascade>
</opencv_storage>
